digraph Tree {
node [shape=box] ;
0 [label="Sex <= 0.5\ngini = 0.482\nsamples = 712\nvalue = [424, 288]"] ;
1 [label="Pclass <= 2.5\ngini = 0.372\nsamples = 259\nvalue = [64, 195]"] ;
0 -> 1 [labeldistance=2.5, labelangle=45, headlabel="True"] ;
2 [label="Age <= 2.5\ngini = 0.108\nsamples = 157\nvalue = [9, 148]"] ;
1 -> 2 ;
3 [label="Pclass <= 1.5\ngini = 0.5\nsamples = 2\nvalue = [1, 1]"] ;
2 -> 3 ;
4 [label="gini = 0.0\nsamples = 1\nvalue = [1, 0]"] ;
3 -> 4 ;
5 [label="gini = 0.0\nsamples = 1\nvalue = [0, 1]"] ;
3 -> 5 ;
6 [label="Fare <= 28.856\ngini = 0.098\nsamples = 155\nvalue = [8, 147]"] ;
2 -> 6 ;
7 [label="Fare <= 28.231\ngini = 0.185\nsamples = 68\nvalue = [7, 61]"] ;
6 -> 7 ;
8 [label="Age <= 56.0\ngini = 0.163\nsamples = 67\nvalue = [6, 61]"] ;
7 -> 8 ;
9 [label="SibSp <= 0.5\ngini = 0.142\nsamples = 65\nvalue = [5, 60]"] ;
8 -> 9 ;
10 [label="Fare <= 13.25\ngini = 0.087\nsamples = 44\nvalue = [2, 42]"] ;
9 -> 10 ;
11 [label="Fare <= 12.825\ngini = 0.153\nsamples = 24\nvalue = [2, 22]"] ;
10 -> 11 ;
12 [label="gini = 0.0\nsamples = 10\nvalue = [0, 10]"] ;
11 -> 12 ;
13 [label="Age <= 26.0\ngini = 0.245\nsamples = 14\nvalue = [2, 12]"] ;
11 -> 13 ;
14 [label="Parch <= 1.0\ngini = 0.444\nsamples = 3\nvalue = [1, 2]"] ;
13 -> 14 ;
15 [label="gini = 0.5\nsamples = 2\nvalue = [1, 1]"] ;
14 -> 15 ;
16 [label="gini = 0.0\nsamples = 1\nvalue = [0, 1]"] ;
14 -> 16 ;
17 [label="Age <= 37.0\ngini = 0.165\nsamples = 11\nvalue = [1, 10]"] ;
13 -> 17 ;
18 [label="gini = 0.0\nsamples = 8\nvalue = [0, 8]"] ;
17 -> 18 ;
19 [label="Age <= 39.0\ngini = 0.444\nsamples = 3\nvalue = [1, 2]"] ;
17 -> 19 ;
20 [label="gini = 0.0\nsamples = 1\nvalue = [1, 0]"] ;
19 -> 20 ;
21 [label="gini = 0.0\nsamples = 2\nvalue = [0, 2]"] ;
19 -> 21 ;
22 [label="gini = 0.0\nsamples = 20\nvalue = [0, 20]"] ;
10 -> 22 ;
23 [label="Age <= 25.0\ngini = 0.245\nsamples = 21\nvalue = [3, 18]"] ;
9 -> 23 ;
24 [label="gini = 0.0\nsamples = 6\nvalue = [0, 6]"] ;
23 -> 24 ;
25 [label="Age <= 27.5\ngini = 0.32\nsamples = 15\nvalue = [3, 12]"] ;
23 -> 25 ;
26 [label="Embarked <= 1.0\ngini = 0.444\nsamples = 3\nvalue = [2, 1]"] ;
25 -> 26 ;
27 [label="gini = 0.0\nsamples = 1\nvalue = [0, 1]"] ;
26 -> 27 ;
28 [label="gini = 0.0\nsamples = 2\nvalue = [2, 0]"] ;
26 -> 28 ;
29 [label="Age <= 43.0\ngini = 0.153\nsamples = 12\nvalue = [1, 11]"] ;
25 -> 29 ;
30 [label="gini = 0.0\nsamples = 9\nvalue = [0, 9]"] ;
29 -> 30 ;
31 [label="Parch <= 0.5\ngini = 0.444\nsamples = 3\nvalue = [1, 2]"] ;
29 -> 31 ;
32 [label="gini = 0.0\nsamples = 1\nvalue = [1, 0]"] ;
31 -> 32 ;
33 [label="gini = 0.0\nsamples = 2\nvalue = [0, 2]"] ;
31 -> 33 ;
34 [label="Pclass <= 1.5\ngini = 0.5\nsamples = 2\nvalue = [1, 1]"] ;
8 -> 34 ;
35 [label="gini = 0.0\nsamples = 1\nvalue = [0, 1]"] ;
34 -> 35 ;
36 [label="gini = 0.0\nsamples = 1\nvalue = [1, 0]"] ;
34 -> 36 ;
37 [label="gini = 0.0\nsamples = 1\nvalue = [1, 0]"] ;
7 -> 37 ;
38 [label="Parch <= 1.5\ngini = 0.023\nsamples = 87\nvalue = [1, 86]"] ;
6 -> 38 ;
39 [label="gini = 0.0\nsamples = 72\nvalue = [0, 72]"] ;
38 -> 39 ;
40 [label="Age <= 24.5\ngini = 0.124\nsamples = 15\nvalue = [1, 14]"] ;
38 -> 40 ;
41 [label="gini = 0.0\nsamples = 10\nvalue = [0, 10]"] ;
40 -> 41 ;
42 [label="Age <= 28.0\ngini = 0.32\nsamples = 5\nvalue = [1, 4]"] ;
40 -> 42 ;
43 [label="gini = 0.0\nsamples = 1\nvalue = [1, 0]"] ;
42 -> 43 ;
44 [label="gini = 0.0\nsamples = 4\nvalue = [0, 4]"] ;
42 -> 44 ;
45 [label="Fare <= 20.8\ngini = 0.497\nsamples = 102\nvalue = [55, 47]"] ;
1 -> 45 ;
46 [label="Age <= 16.5\ngini = 0.494\nsamples = 79\nvalue = [35, 44]"] ;
45 -> 46 ;
47 [label="Fare <= 15.494\ngini = 0.32\nsamples = 20\nvalue = [4, 16]"] ;
46 -> 47 ;
48 [label="Fare <= 13.935\ngini = 0.391\nsamples = 15\nvalue = [4, 11]"] ;
47 -> 48 ;
49 [label="Embarked <= 1.5\ngini = 0.278\nsamples = 12\nvalue = [2, 10]"] ;
48 -> 49 ;
50 [label="gini = 0.0\nsamples = 7\nvalue = [0, 7]"] ;
49 -> 50 ;
51 [label="Fare <= 10.798\ngini = 0.48\nsamples = 5\nvalue = [2, 3]"] ;
49 -> 51 ;
52 [label="gini = 0.0\nsamples = 2\nvalue = [2, 0]"] ;
51 -> 52 ;
53 [label="gini = 0.0\nsamples = 3\nvalue = [0, 3]"] ;
51 -> 53 ;
54 [label="Age <= 14.75\ngini = 0.444\nsamples = 3\nvalue = [2, 1]"] ;
48 -> 54 ;
55 [label="gini = 0.0\nsamples = 2\nvalue = [2, 0]"] ;
54 -> 55 ;
56 [label="gini = 0.0\nsamples = 1\nvalue = [0, 1]"] ;
54 -> 56 ;
57 [label="gini = 0.0\nsamples = 5\nvalue = [0, 5]"] ;
47 -> 57 ;
58 [label="Age <= 36.5\ngini = 0.499\nsamples = 59\nvalue = [31, 28]"] ;
46 -> 58 ;
59 [label="Parch <= 1.5\ngini = 0.499\nsamples = 52\nvalue = [25, 27]"] ;
58 -> 59 ;
60 [label="Age <= 32.5\ngini = 0.498\nsamples = 47\nvalue = [25, 22]"] ;
59 -> 60 ;
61 [label="Fare <= 7.887\ngini = 0.491\nsamples = 44\nvalue = [25, 19]"] ;
60 -> 61 ;
62 [label="Age <= 28.25\ngini = 0.469\nsamples = 16\nvalue = [6, 10]"] ;
61 -> 62 ;
63 [label="Age <= 18.5\ngini = 0.408\nsamples = 14\nvalue = [4, 10]"] ;
62 -> 63 ;
64 [label="Embarked <= 1.5\ngini = 0.444\nsamples = 3\nvalue = [2, 1]"] ;
63 -> 64 ;
65 [label="gini = 0.0\nsamples = 1\nvalue = [1, 0]"] ;
64 -> 65 ;
66 [label="Fare <= 7.635\ngini = 0.5\nsamples = 2\nvalue = [1, 1]"] ;
64 -> 66 ;
67 [label="gini = 0.0\nsamples = 1\nvalue = [0, 1]"] ;
66 -> 67 ;
68 [label="gini = 0.0\nsamples = 1\nvalue = [1, 0]"] ;
66 -> 68 ;
69 [label="Age <= 24.0\ngini = 0.298\nsamples = 11\nvalue = [2, 9]"] ;
63 -> 69 ;
70 [label="Embarked <= 1.5\ngini = 0.198\nsamples = 9\nvalue = [1, 8]"] ;
69 -> 70 ;
71 [label="Fare <= 7.815\ngini = 0.444\nsamples = 3\nvalue = [1, 2]"] ;
70 -> 71 ;
72 [label="Age <= 21.5\ngini = 0.5\nsamples = 2\nvalue = [1, 1]"] ;
71 -> 72 ;
73 [label="gini = 0.0\nsamples = 1\nvalue = [1, 0]"] ;
72 -> 73 ;
74 [label="gini = 0.0\nsamples = 1\nvalue = [0, 1]"] ;
72 -> 74 ;
75 [label="gini = 0.0\nsamples = 1\nvalue = [0, 1]"] ;
71 -> 75 ;
76 [label="gini = 0.0\nsamples = 6\nvalue = [0, 6]"] ;
70 -> 76 ;
77 [label="Age <= 25.5\ngini = 0.5\nsamples = 2\nvalue = [1, 1]"] ;
69 -> 77 ;
78 [label="gini = 0.0\nsamples = 1\nvalue = [1, 0]"] ;
77 -> 78 ;
79 [label="gini = 0.0\nsamples = 1\nvalue = [0, 1]"] ;
77 -> 79 ;
80 [label="gini = 0.0\nsamples = 2\nvalue = [2, 0]"] ;
62 -> 80 ;
81 [label="SibSp <= 0.5\ngini = 0.436\nsamples = 28\nvalue = [19, 9]"] ;
61 -> 81 ;
82 [label="Age <= 25.0\ngini = 0.492\nsamples = 16\nvalue = [9, 7]"] ;
81 -> 82 ;
83 [label="Age <= 19.0\ngini = 0.346\nsamples = 9\nvalue = [7, 2]"] ;
82 -> 83 ;
84 [label="Fare <= 12.148\ngini = 0.5\nsamples = 4\nvalue = [2, 2]"] ;
83 -> 84 ;
85 [label="gini = 0.0\nsamples = 2\nvalue = [0, 2]"] ;
84 -> 85 ;
86 [label="gini = 0.0\nsamples = 2\nvalue = [2, 0]"] ;
84 -> 86 ;
87 [label="gini = 0.0\nsamples = 5\nvalue = [5, 0]"] ;
83 -> 87 ;
88 [label="Fare <= 7.91\ngini = 0.408\nsamples = 7\nvalue = [2, 5]"] ;
82 -> 88 ;
89 [label="gini = 0.0\nsamples = 1\nvalue = [1, 0]"] ;
88 -> 89 ;
90 [label="Age <= 28.5\ngini = 0.278\nsamples = 6\nvalue = [1, 5]"] ;
88 -> 90 ;
91 [label="gini = 0.0\nsamples = 3\nvalue = [0, 3]"] ;
90 -> 91 ;
92 [label="Fare <= 8.673\ngini = 0.444\nsamples = 3\nvalue = [1, 2]"] ;
90 -> 92 ;
93 [label="gini = 0.0\nsamples = 1\nvalue = [1, 0]"] ;
92 -> 93 ;
94 [label="gini = 0.0\nsamples = 2\nvalue = [0, 2]"] ;
92 -> 94 ;
95 [label="Fare <= 19.263\ngini = 0.278\nsamples = 12\nvalue = [10, 2]"] ;
81 -> 95 ;
96 [label="Age <= 24.5\ngini = 0.165\nsamples = 11\nvalue = [10, 1]"] ;
95 -> 96 ;
97 [label="Age <= 22.5\ngini = 0.32\nsamples = 5\nvalue = [4, 1]"] ;
96 -> 97 ;
98 [label="gini = 0.0\nsamples = 4\nvalue = [4, 0]"] ;
97 -> 98 ;
99 [label="gini = 0.0\nsamples = 1\nvalue = [0, 1]"] ;
97 -> 99 ;
100 [label="gini = 0.0\nsamples = 6\nvalue = [6, 0]"] ;
96 -> 100 ;
101 [label="gini = 0.0\nsamples = 1\nvalue = [0, 1]"] ;
95 -> 101 ;
102 [label="gini = 0.0\nsamples = 3\nvalue = [0, 3]"] ;
60 -> 102 ;
103 [label="gini = 0.0\nsamples = 5\nvalue = [0, 5]"] ;
59 -> 103 ;
104 [label="Age <= 55.0\ngini = 0.245\nsamples = 7\nvalue = [6, 1]"] ;
58 -> 104 ;
105 [label="gini = 0.0\nsamples = 6\nvalue = [6, 0]"] ;
104 -> 105 ;
106 [label="gini = 0.0\nsamples = 1\nvalue = [0, 1]"] ;
104 -> 106 ;
107 [label="Age <= 5.5\ngini = 0.227\nsamples = 23\nvalue = [20, 3]"] ;
45 -> 107 ;
108 [label="Age <= 3.5\ngini = 0.48\nsamples = 5\nvalue = [3, 2]"] ;
107 -> 108 ;
109 [label="gini = 0.0\nsamples = 3\nvalue = [3, 0]"] ;
108 -> 109 ;
110 [label="gini = 0.0\nsamples = 2\nvalue = [0, 2]"] ;
108 -> 110 ;
111 [label="Parch <= 4.5\ngini = 0.105\nsamples = 18\nvalue = [17, 1]"] ;
107 -> 111 ;
112 [label="gini = 0.0\nsamples = 13\nvalue = [13, 0]"] ;
111 -> 112 ;
113 [label="Age <= 38.5\ngini = 0.32\nsamples = 5\nvalue = [4, 1]"] ;
111 -> 113 ;
114 [label="gini = 0.0\nsamples = 1\nvalue = [0, 1]"] ;
113 -> 114 ;
115 [label="gini = 0.0\nsamples = 4\nvalue = [4, 0]"] ;
113 -> 115 ;
116 [label="Age <= 6.5\ngini = 0.326\nsamples = 453\nvalue = [360, 93]"] ;
0 -> 116 [labeldistance=2.5, labelangle=-45, headlabel="False"] ;
117 [label="SibSp <= 2.5\ngini = 0.444\nsamples = 24\nvalue = [8, 16]"] ;
116 -> 117 ;
118 [label="gini = 0.0\nsamples = 15\nvalue = [0, 15]"] ;
117 -> 118 ;
119 [label="Fare <= 31.331\ngini = 0.198\nsamples = 9\nvalue = [8, 1]"] ;
117 -> 119 ;
120 [label="gini = 0.0\nsamples = 5\nvalue = [5, 0]"] ;
119 -> 120 ;
121 [label="Age <= 2.5\ngini = 0.375\nsamples = 4\nvalue = [3, 1]"] ;
119 -> 121 ;
122 [label="gini = 0.0\nsamples = 3\nvalue = [3, 0]"] ;
121 -> 122 ;
123 [label="gini = 0.0\nsamples = 1\nvalue = [0, 1]"] ;
121 -> 123 ;
124 [label="Pclass <= 1.5\ngini = 0.295\nsamples = 429\nvalue = [352, 77]"] ;
116 -> 124 ;
125 [label="Age <= 53.0\ngini = 0.473\nsamples = 99\nvalue = [61, 38]"] ;
124 -> 125 ;
126 [label="Fare <= 25.938\ngini = 0.496\nsamples = 77\nvalue = [42, 35]"] ;
125 -> 126 ;
127 [label="gini = 0.0\nsamples = 5\nvalue = [5, 0]"] ;
126 -> 127 ;
128 [label="Fare <= 27.135\ngini = 0.5\nsamples = 72\nvalue = [37, 35]"] ;
126 -> 128 ;
129 [label="Age <= 43.5\ngini = 0.165\nsamples = 11\nvalue = [1, 10]"] ;
128 -> 129 ;
130 [label="gini = 0.0\nsamples = 7\nvalue = [0, 7]"] ;
129 -> 130 ;
131 [label="Age <= 46.5\ngini = 0.375\nsamples = 4\nvalue = [1, 3]"] ;
129 -> 131 ;
132 [label="gini = 0.5\nsamples = 2\nvalue = [1, 1]"] ;
131 -> 132 ;
133 [label="gini = 0.0\nsamples = 2\nvalue = [0, 2]"] ;
131 -> 133 ;
134 [label="Age <= 17.5\ngini = 0.484\nsamples = 61\nvalue = [36, 25]"] ;
128 -> 134 ;
135 [label="gini = 0.0\nsamples = 2\nvalue = [0, 2]"] ;
134 -> 135 ;
136 [label="Age <= 22.5\ngini = 0.476\nsamples = 59\nvalue = [36, 23]"] ;
134 -> 136 ;
137 [label="gini = 0.0\nsamples = 5\nvalue = [5, 0]"] ;
136 -> 137 ;
138 [label="Age <= 27.5\ngini = 0.489\nsamples = 54\nvalue = [31, 23]"] ;
136 -> 138 ;
139 [label="Fare <= 77.965\ngini = 0.42\nsamples = 10\nvalue = [3, 7]"] ;
138 -> 139 ;
140 [label="gini = 0.0\nsamples = 6\nvalue = [0, 6]"] ;
139 -> 140 ;
141 [label="SibSp <= 0.5\ngini = 0.375\nsamples = 4\nvalue = [3, 1]"] ;
139 -> 141 ;
142 [label="gini = 0.0\nsamples = 3\nvalue = [3, 0]"] ;
141 -> 142 ;
143 [label="gini = 0.0\nsamples = 1\nvalue = [0, 1]"] ;
141 -> 143 ;
144 [label="Fare <= 115.442\ngini = 0.463\nsamples = 44\nvalue = [28, 16]"] ;
138 -> 144 ;
145 [label="Fare <= 30.25\ngini = 0.426\nsamples = 39\nvalue = [27, 12]"] ;
144 -> 145 ;
146 [label="gini = 0.0\nsamples = 5\nvalue = [5, 0]"] ;
145 -> 146 ;
147 [label="Fare <= 32.51\ngini = 0.457\nsamples = 34\nvalue = [22, 12]"] ;
145 -> 147 ;
148 [label="gini = 0.0\nsamples = 3\nvalue = [0, 3]"] ;
147 -> 148 ;
149 [label="SibSp <= 0.5\ngini = 0.412\nsamples = 31\nvalue = [22, 9]"] ;
147 -> 149 ;
150 [label="Age <= 29.5\ngini = 0.18\nsamples = 10\nvalue = [9, 1]"] ;
149 -> 150 ;
151 [label="Fare <= 41.3\ngini = 0.5\nsamples = 2\nvalue = [1, 1]"] ;
150 -> 151 ;
152 [label="gini = 0.0\nsamples = 1\nvalue = [0, 1]"] ;
151 -> 152 ;
153 [label="gini = 0.0\nsamples = 1\nvalue = [1, 0]"] ;
151 -> 153 ;
154 [label="gini = 0.0\nsamples = 8\nvalue = [8, 0]"] ;
150 -> 154 ;
155 [label="Age <= 49.5\ngini = 0.472\nsamples = 21\nvalue = [13, 8]"] ;
149 -> 155 ;
156 [label="Age <= 47.0\ngini = 0.494\nsamples = 18\nvalue = [10, 8]"] ;
155 -> 156 ;
157 [label="Parch <= 0.5\ngini = 0.426\nsamples = 13\nvalue = [9, 4]"] ;
156 -> 157 ;
158 [label="Age <= 43.0\ngini = 0.375\nsamples = 12\nvalue = [9, 3]"] ;
157 -> 158 ;
159 [label="Fare <= 86.085\ngini = 0.444\nsamples = 9\nvalue = [6, 3]"] ;
158 -> 159 ;
160 [label="Fare <= 61.8\ngini = 0.375\nsamples = 8\nvalue = [6, 2]"] ;
159 -> 160 ;
161 [label="Fare <= 52.277\ngini = 0.48\nsamples = 5\nvalue = [3, 2]"] ;
160 -> 161 ;
162 [label="gini = 0.0\nsamples = 2\nvalue = [2, 0]"] ;
161 -> 162 ;
163 [label="Fare <= 52.827\ngini = 0.444\nsamples = 3\nvalue = [1, 2]"] ;
161 -> 163 ;
164 [label="gini = 0.0\nsamples = 1\nvalue = [0, 1]"] ;
163 -> 164 ;
165 [label="Fare <= 55.05\ngini = 0.5\nsamples = 2\nvalue = [1, 1]"] ;
163 -> 165 ;
166 [label="gini = 0.0\nsamples = 1\nvalue = [1, 0]"] ;
165 -> 166 ;
167 [label="gini = 0.0\nsamples = 1\nvalue = [0, 1]"] ;
165 -> 167 ;
168 [label="gini = 0.0\nsamples = 3\nvalue = [3, 0]"] ;
160 -> 168 ;
169 [label="gini = 0.0\nsamples = 1\nvalue = [0, 1]"] ;
159 -> 169 ;
170 [label="gini = 0.0\nsamples = 3\nvalue = [3, 0]"] ;
158 -> 170 ;
171 [label="gini = 0.0\nsamples = 1\nvalue = [0, 1]"] ;
157 -> 171 ;
172 [label="Parch <= 0.5\ngini = 0.32\nsamples = 5\nvalue = [1, 4]"] ;
156 -> 172 ;
173 [label="gini = 0.0\nsamples = 4\nvalue = [0, 4]"] ;
172 -> 173 ;
174 [label="gini = 0.0\nsamples = 1\nvalue = [1, 0]"] ;
172 -> 174 ;
175 [label="gini = 0.0\nsamples = 3\nvalue = [3, 0]"] ;
155 -> 175 ;
176 [label="Age <= 37.0\ngini = 0.32\nsamples = 5\nvalue = [1, 4]"] ;
144 -> 176 ;
177 [label="gini = 0.0\nsamples = 3\nvalue = [0, 3]"] ;
176 -> 177 ;
178 [label="SibSp <= 1.0\ngini = 0.5\nsamples = 2\nvalue = [1, 1]"] ;
176 -> 178 ;
179 [label="gini = 0.0\nsamples = 1\nvalue = [1, 0]"] ;
178 -> 179 ;
180 [label="gini = 0.0\nsamples = 1\nvalue = [0, 1]"] ;
178 -> 180 ;
181 [label="Age <= 75.5\ngini = 0.236\nsamples = 22\nvalue = [19, 3]"] ;
125 -> 181 ;
182 [label="Embarked <= 1.0\ngini = 0.172\nsamples = 21\nvalue = [19, 2]"] ;
181 -> 182 ;
183 [label="SibSp <= 0.5\ngini = 0.375\nsamples = 8\nvalue = [6, 2]"] ;
182 -> 183 ;
184 [label="Age <= 57.0\ngini = 0.245\nsamples = 7\nvalue = [6, 1]"] ;
183 -> 184 ;
185 [label="Fare <= 33.098\ngini = 0.5\nsamples = 2\nvalue = [1, 1]"] ;
184 -> 185 ;
186 [label="gini = 0.0\nsamples = 1\nvalue = [1, 0]"] ;
185 -> 186 ;
187 [label="gini = 0.0\nsamples = 1\nvalue = [0, 1]"] ;
185 -> 187 ;
188 [label="gini = 0.0\nsamples = 5\nvalue = [5, 0]"] ;
184 -> 188 ;
189 [label="gini = 0.0\nsamples = 1\nvalue = [0, 1]"] ;
183 -> 189 ;
190 [label="gini = 0.0\nsamples = 13\nvalue = [13, 0]"] ;
182 -> 190 ;
191 [label="gini = 0.0\nsamples = 1\nvalue = [0, 1]"] ;
181 -> 191 ;
192 [label="Age <= 13.0\ngini = 0.208\nsamples = 330\nvalue = [291, 39]"] ;
124 -> 192 ;
193 [label="SibSp <= 2.0\ngini = 0.444\nsamples = 12\nvalue = [8, 4]"] ;
192 -> 193 ;
194 [label="SibSp <= 0.5\ngini = 0.32\nsamples = 5\nvalue = [1, 4]"] ;
193 -> 194 ;
195 [label="Parch <= 1.0\ngini = 0.5\nsamples = 2\nvalue = [1, 1]"] ;
194 -> 195 ;
196 [label="gini = 0.0\nsamples = 1\nvalue = [1, 0]"] ;
195 -> 196 ;
197 [label="gini = 0.0\nsamples = 1\nvalue = [0, 1]"] ;
195 -> 197 ;
198 [label="gini = 0.0\nsamples = 3\nvalue = [0, 3]"] ;
194 -> 198 ;
199 [label="gini = 0.0\nsamples = 7\nvalue = [7, 0]"] ;
193 -> 199 ;
200 [label="Fare <= 51.698\ngini = 0.196\nsamples = 318\nvalue = [283, 35]"] ;
192 -> 200 ;
201 [label="Age <= 32.25\ngini = 0.186\nsamples = 309\nvalue = [277, 32]"] ;
200 -> 201 ;
202 [label="Age <= 30.75\ngini = 0.222\nsamples = 204\nvalue = [178, 26]"] ;
201 -> 202 ;
203 [label="Embarked <= 1.5\ngini = 0.192\nsamples = 186\nvalue = [166, 20]"] ;
202 -> 203 ;
204 [label="Fare <= 7.746\ngini = 0.375\nsamples = 24\nvalue = [18, 6]"] ;
203 -> 204 ;
205 [label="Age <= 22.75\ngini = 0.245\nsamples = 14\nvalue = [12, 2]"] ;
204 -> 205 ;
206 [label="Age <= 19.5\ngini = 0.375\nsamples = 8\nvalue = [6, 2]"] ;
205 -> 206 ;
207 [label="gini = 0.0\nsamples = 3\nvalue = [3, 0]"] ;
206 -> 207 ;
208 [label="Embarked <= 0.5\ngini = 0.48\nsamples = 5\nvalue = [3, 2]"] ;
206 -> 208 ;
209 [label="Fare <= 5.619\ngini = 0.5\nsamples = 4\nvalue = [2, 2]"] ;
208 -> 209 ;
210 [label="gini = 0.0\nsamples = 1\nvalue = [1, 0]"] ;
209 -> 210 ;
211 [label="Fare <= 7.227\ngini = 0.444\nsamples = 3\nvalue = [1, 2]"] ;
209 -> 211 ;
212 [label="gini = 0.0\nsamples = 1\nvalue = [0, 1]"] ;
211 -> 212 ;
213 [label="Age <= 21.0\ngini = 0.5\nsamples = 2\nvalue = [1, 1]"] ;
211 -> 213 ;
214 [label="gini = 0.0\nsamples = 1\nvalue = [0, 1]"] ;
213 -> 214 ;
215 [label="gini = 0.0\nsamples = 1\nvalue = [1, 0]"] ;
213 -> 215 ;
216 [label="gini = 0.0\nsamples = 1\nvalue = [1, 0]"] ;
208 -> 216 ;
217 [label="gini = 0.0\nsamples = 6\nvalue = [6, 0]"] ;
205 -> 217 ;
218 [label="Pclass <= 2.5\ngini = 0.48\nsamples = 10\nvalue = [6, 4]"] ;
204 -> 218 ;
219 [label="gini = 0.0\nsamples = 4\nvalue = [4, 0]"] ;
218 -> 219 ;
220 [label="SibSp <= 0.5\ngini = 0.444\nsamples = 6\nvalue = [2, 4]"] ;
218 -> 220 ;
221 [label="gini = 0.0\nsamples = 3\nvalue = [0, 3]"] ;
220 -> 221 ;
222 [label="Parch <= 0.5\ngini = 0.444\nsamples = 3\nvalue = [2, 1]"] ;
220 -> 222 ;
223 [label="gini = 0.0\nsamples = 2\nvalue = [2, 0]"] ;
222 -> 223 ;
224 [label="gini = 0.0\nsamples = 1\nvalue = [0, 1]"] ;
222 -> 224 ;
225 [label="Fare <= 7.01\ngini = 0.158\nsamples = 162\nvalue = [148, 14]"] ;
203 -> 225 ;
226 [label="Age <= 22.0\ngini = 0.5\nsamples = 4\nvalue = [2, 2]"] ;
225 -> 226 ;
227 [label="gini = 0.0\nsamples = 2\nvalue = [2, 0]"] ;
226 -> 227 ;
228 [label="gini = 0.0\nsamples = 2\nvalue = [0, 2]"] ;
226 -> 228 ;
229 [label="Fare <= 11.0\ngini = 0.14\nsamples = 158\nvalue = [146, 12]"] ;
225 -> 229 ;
230 [label="Fare <= 7.91\ngini = 0.187\nsamples = 115\nvalue = [103, 12]"] ;
229 -> 230 ;
231 [label="Fare <= 7.798\ngini = 0.126\nsamples = 59\nvalue = [55, 4]"] ;
230 -> 231 ;
232 [label="Fare <= 7.785\ngini = 0.202\nsamples = 35\nvalue = [31, 4]"] ;
231 -> 232 ;
233 [label="Age <= 23.0\ngini = 0.128\nsamples = 29\nvalue = [27, 2]"] ;
232 -> 233 ;
234 [label="gini = 0.0\nsamples = 16\nvalue = [16, 0]"] ;
233 -> 234 ;
235 [label="Age <= 25.5\ngini = 0.26\nsamples = 13\nvalue = [11, 2]"] ;
233 -> 235 ;
236 [label="Fare <= 7.096\ngini = 0.346\nsamples = 9\nvalue = [7, 2]"] ;
235 -> 236 ;
237 [label="gini = 0.0\nsamples = 3\nvalue = [3, 0]"] ;
236 -> 237 ;
238 [label="Fare <= 7.196\ngini = 0.444\nsamples = 6\nvalue = [4, 2]"] ;
236 -> 238 ;
239 [label="gini = 0.0\nsamples = 1\nvalue = [0, 1]"] ;
238 -> 239 ;
240 [label="Fare <= 7.713\ngini = 0.32\nsamples = 5\nvalue = [4, 1]"] ;
238 -> 240 ;
241 [label="gini = 0.0\nsamples = 3\nvalue = [3, 0]"] ;
240 -> 241 ;
242 [label="gini = 0.5\nsamples = 2\nvalue = [1, 1]"] ;
240 -> 242 ;
243 [label="gini = 0.0\nsamples = 4\nvalue = [4, 0]"] ;
235 -> 243 ;
244 [label="Age <= 19.5\ngini = 0.444\nsamples = 6\nvalue = [4, 2]"] ;
232 -> 244 ;
245 [label="gini = 0.0\nsamples = 1\nvalue = [1, 0]"] ;
244 -> 245 ;
246 [label="Age <= 21.5\ngini = 0.48\nsamples = 5\nvalue = [3, 2]"] ;
244 -> 246 ;
247 [label="gini = 0.0\nsamples = 1\nvalue = [0, 1]"] ;
246 -> 247 ;
248 [label="Age <= 25.5\ngini = 0.375\nsamples = 4\nvalue = [3, 1]"] ;
246 -> 248 ;
249 [label="gini = 0.0\nsamples = 2\nvalue = [2, 0]"] ;
248 -> 249 ;
250 [label="Age <= 27.5\ngini = 0.5\nsamples = 2\nvalue = [1, 1]"] ;
248 -> 250 ;
251 [label="gini = 0.0\nsamples = 1\nvalue = [0, 1]"] ;
250 -> 251 ;
252 [label="gini = 0.0\nsamples = 1\nvalue = [1, 0]"] ;
250 -> 252 ;
253 [label="gini = 0.0\nsamples = 24\nvalue = [24, 0]"] ;
231 -> 253 ;
254 [label="Age <= 19.5\ngini = 0.245\nsamples = 56\nvalue = [48, 8]"] ;
230 -> 254 ;
255 [label="Fare <= 8.104\ngini = 0.375\nsamples = 16\nvalue = [12, 4]"] ;
254 -> 255 ;
256 [label="Age <= 17.0\ngini = 0.48\nsamples = 5\nvalue = [2, 3]"] ;
255 -> 256 ;
257 [label="gini = 0.5\nsamples = 2\nvalue = [1, 1]"] ;
256 -> 257 ;
258 [label="Age <= 18.5\ngini = 0.444\nsamples = 3\nvalue = [1, 2]"] ;
256 -> 258 ;
259 [label="gini = 0.0\nsamples = 1\nvalue = [0, 1]"] ;
258 -> 259 ;
260 [label="gini = 0.5\nsamples = 2\nvalue = [1, 1]"] ;
258 -> 260 ;
261 [label="Pclass <= 2.5\ngini = 0.165\nsamples = 11\nvalue = [10, 1]"] ;
255 -> 261 ;
262 [label="Age <= 17.5\ngini = 0.444\nsamples = 3\nvalue = [2, 1]"] ;
261 -> 262 ;
263 [label="gini = 0.0\nsamples = 1\nvalue = [1, 0]"] ;
262 -> 263 ;
264 [label="gini = 0.5\nsamples = 2\nvalue = [1, 1]"] ;
262 -> 264 ;
265 [label="gini = 0.0\nsamples = 8\nvalue = [8, 0]"] ;
261 -> 265 ;
266 [label="Age <= 26.5\ngini = 0.18\nsamples = 40\nvalue = [36, 4]"] ;
254 -> 266 ;
267 [label="SibSp <= 0.5\ngini = 0.074\nsamples = 26\nvalue = [25, 1]"] ;
266 -> 267 ;
268 [label="gini = 0.0\nsamples = 24\nvalue = [24, 0]"] ;
267 -> 268 ;
269 [label="Fare <= 8.294\ngini = 0.5\nsamples = 2\nvalue = [1, 1]"] ;
267 -> 269 ;
270 [label="gini = 0.0\nsamples = 1\nvalue = [0, 1]"] ;
269 -> 270 ;
271 [label="gini = 0.0\nsamples = 1\nvalue = [1, 0]"] ;
269 -> 271 ;
272 [label="Age <= 27.5\ngini = 0.337\nsamples = 14\nvalue = [11, 3]"] ;
266 -> 272 ;
273 [label="gini = 0.0\nsamples = 1\nvalue = [0, 1]"] ;
272 -> 273 ;
274 [label="Fare <= 9.492\ngini = 0.26\nsamples = 13\nvalue = [11, 2]"] ;
272 -> 274 ;
275 [label="gini = 0.0\nsamples = 6\nvalue = [6, 0]"] ;
274 -> 275 ;
276 [label="Age <= 28.5\ngini = 0.408\nsamples = 7\nvalue = [5, 2]"] ;
274 -> 276 ;
277 [label="gini = 0.0\nsamples = 3\nvalue = [3, 0]"] ;
276 -> 277 ;
278 [label="Fare <= 10.0\ngini = 0.5\nsamples = 4\nvalue = [2, 2]"] ;
276 -> 278 ;
279 [label="gini = 0.0\nsamples = 2\nvalue = [0, 2]"] ;
278 -> 279 ;
280 [label="gini = 0.0\nsamples = 2\nvalue = [2, 0]"] ;
278 -> 280 ;
281 [label="gini = 0.0\nsamples = 43\nvalue = [43, 0]"] ;
229 -> 281 ;
282 [label="Embarked <= 1.5\ngini = 0.444\nsamples = 18\nvalue = [12, 6]"] ;
202 -> 282 ;
283 [label="gini = 0.0\nsamples = 3\nvalue = [3, 0]"] ;
282 -> 283 ;
284 [label="Fare <= 7.815\ngini = 0.48\nsamples = 15\nvalue = [9, 6]"] ;
282 -> 284 ;
285 [label="gini = 0.0\nsamples = 1\nvalue = [1, 0]"] ;
284 -> 285 ;
286 [label="Fare <= 7.875\ngini = 0.49\nsamples = 14\nvalue = [8, 6]"] ;
284 -> 286 ;
287 [label="gini = 0.0\nsamples = 1\nvalue = [0, 1]"] ;
286 -> 287 ;
288 [label="Parch <= 0.5\ngini = 0.473\nsamples = 13\nvalue = [8, 5]"] ;
286 -> 288 ;
289 [label="Fare <= 20.925\ngini = 0.486\nsamples = 12\nvalue = [7, 5]"] ;
288 -> 289 ;
290 [label="Age <= 31.5\ngini = 0.463\nsamples = 11\nvalue = [7, 4]"] ;
289 -> 290 ;
291 [label="Fare <= 9.212\ngini = 0.444\nsamples = 3\nvalue = [1, 2]"] ;
290 -> 291 ;
292 [label="gini = 0.0\nsamples = 1\nvalue = [0, 1]"] ;
291 -> 292 ;
293 [label="Fare <= 11.75\ngini = 0.5\nsamples = 2\nvalue = [1, 1]"] ;
291 -> 293 ;
294 [label="gini = 0.0\nsamples = 1\nvalue = [1, 0]"] ;
293 -> 294 ;
295 [label="gini = 0.0\nsamples = 1\nvalue = [0, 1]"] ;
293 -> 295 ;
296 [label="Fare <= 8.206\ngini = 0.375\nsamples = 8\nvalue = [6, 2]"] ;
290 -> 296 ;
297 [label="Fare <= 7.988\ngini = 0.48\nsamples = 5\nvalue = [3, 2]"] ;
296 -> 297 ;
298 [label="Fare <= 7.91\ngini = 0.375\nsamples = 4\nvalue = [3, 1]"] ;
297 -> 298 ;
299 [label="gini = 0.0\nsamples = 1\nvalue = [1, 0]"] ;
298 -> 299 ;
300 [label="gini = 0.444\nsamples = 3\nvalue = [2, 1]"] ;
298 -> 300 ;
301 [label="gini = 0.0\nsamples = 1\nvalue = [0, 1]"] ;
297 -> 301 ;
302 [label="gini = 0.0\nsamples = 3\nvalue = [3, 0]"] ;
296 -> 302 ;
303 [label="gini = 0.0\nsamples = 1\nvalue = [0, 1]"] ;
289 -> 303 ;
304 [label="gini = 0.0\nsamples = 1\nvalue = [1, 0]"] ;
288 -> 304 ;
305 [label="Fare <= 7.91\ngini = 0.108\nsamples = 105\nvalue = [99, 6]"] ;
201 -> 305 ;
306 [label="gini = 0.0\nsamples = 32\nvalue = [32, 0]"] ;
305 -> 306 ;
307 [label="Fare <= 7.988\ngini = 0.151\nsamples = 73\nvalue = [67, 6]"] ;
305 -> 307 ;
308 [label="Age <= 38.0\ngini = 0.5\nsamples = 4\nvalue = [2, 2]"] ;
307 -> 308 ;
309 [label="gini = 0.0\nsamples = 1\nvalue = [1, 0]"] ;
308 -> 309 ;
310 [label="Age <= 41.5\ngini = 0.444\nsamples = 3\nvalue = [1, 2]"] ;
308 -> 310 ;
311 [label="gini = 0.5\nsamples = 2\nvalue = [1, 1]"] ;
310 -> 311 ;
312 [label="gini = 0.0\nsamples = 1\nvalue = [0, 1]"] ;
310 -> 312 ;
313 [label="Age <= 61.0\ngini = 0.109\nsamples = 69\nvalue = [65, 4]"] ;
307 -> 313 ;
314 [label="Fare <= 13.25\ngini = 0.087\nsamples = 66\nvalue = [63, 3]"] ;
313 -> 314 ;
315 [label="Fare <= 12.938\ngini = 0.157\nsamples = 35\nvalue = [32, 3]"] ;
314 -> 315 ;
316 [label="Age <= 44.5\ngini = 0.08\nsamples = 24\nvalue = [23, 1]"] ;
315 -> 316 ;
317 [label="gini = 0.0\nsamples = 17\nvalue = [17, 0]"] ;
316 -> 317 ;
318 [label="Age <= 46.0\ngini = 0.245\nsamples = 7\nvalue = [6, 1]"] ;
316 -> 318 ;
319 [label="gini = 0.0\nsamples = 1\nvalue = [0, 1]"] ;
318 -> 319 ;
320 [label="gini = 0.0\nsamples = 6\nvalue = [6, 0]"] ;
318 -> 320 ;
321 [label="Age <= 45.0\ngini = 0.298\nsamples = 11\nvalue = [9, 2]"] ;
315 -> 321 ;
322 [label="Age <= 40.5\ngini = 0.375\nsamples = 8\nvalue = [6, 2]"] ;
321 -> 322 ;
323 [label="Age <= 35.0\ngini = 0.278\nsamples = 6\nvalue = [5, 1]"] ;
322 -> 323 ;
324 [label="gini = 0.444\nsamples = 3\nvalue = [2, 1]"] ;
323 -> 324 ;
325 [label="gini = 0.0\nsamples = 3\nvalue = [3, 0]"] ;
323 -> 325 ;
326 [label="gini = 0.5\nsamples = 2\nvalue = [1, 1]"] ;
322 -> 326 ;
327 [label="gini = 0.0\nsamples = 3\nvalue = [3, 0]"] ;
321 -> 327 ;
328 [label="gini = 0.0\nsamples = 31\nvalue = [31, 0]"] ;
314 -> 328 ;
329 [label="Age <= 64.0\ngini = 0.444\nsamples = 3\nvalue = [2, 1]"] ;
313 -> 329 ;
330 [label="gini = 0.0\nsamples = 1\nvalue = [0, 1]"] ;
329 -> 330 ;
331 [label="gini = 0.0\nsamples = 2\nvalue = [2, 0]"] ;
329 -> 331 ;
332 [label="Fare <= 64.998\ngini = 0.444\nsamples = 9\nvalue = [6, 3]"] ;
200 -> 332 ;
333 [label="Age <= 30.0\ngini = 0.375\nsamples = 4\nvalue = [1, 3]"] ;
332 -> 333 ;
334 [label="Age <= 27.0\ngini = 0.5\nsamples = 2\nvalue = [1, 1]"] ;
333 -> 334 ;
335 [label="gini = 0.0\nsamples = 1\nvalue = [0, 1]"] ;
334 -> 335 ;
336 [label="gini = 0.0\nsamples = 1\nvalue = [1, 0]"] ;
334 -> 336 ;
337 [label="gini = 0.0\nsamples = 2\nvalue = [0, 2]"] ;
333 -> 337 ;
338 [label="gini = 0.0\nsamples = 5\nvalue = [5, 0]"] ;
332 -> 338 ;
}